{
  "development_stage": "notebook_prototype_for_review",
  "notebook": "notebooks/yb171_effective_two_level_cz_time_optimal_grape.ipynb",
  "paper_context": {
    "reference": "Muniz et al., PRX Quantum 6, 020334 (2025)",
    "doi": "10.1103/PRXQuantum.6.020334",
    "modeling_choice": "ideal shelving/unshelving; optimize only the shelved UV |c>-|r> effective two-level Rydberg segment"
  },
  "model": {
    "basis": [
      "00",
      "01_c",
      "01_r",
      "11_cc",
      "11_Wcr",
      "11_rr",
      "loss"
    ],
    "computational_indices": [
      0,
      1,
      3
    ],
    "sector_weights": [
      1.0,
      2.0,
      1.0
    ],
    "blockade_shift_hz": 160000000.0,
    "uv_rabi_hz_max": 10000000.0,
    "rydberg_lifetime_s": 6.5e-05,
    "only_noise": "Rydberg decay in the effective no-jump generator"
  },
  "control": {
    "num_tslots": 48,
    "gaussian_edge_fraction": 0.2,
    "gaussian_edge_sigma_fraction": 0.08,
    "optimized_variables": "slot phase plus theta0/theta1; amplitude envelope fixed with plateau at Omega_max"
  },
  "scan": {
    "uv_times_ns": [
      60.0,
      80.0,
      100.0,
      125.0,
      150.0,
      180.0,
      220.0,
      260.0,
      300.0
    ],
    "fidelity_target": 0.999,
    "shortest_passing_time_ns": 180.0,
    "best_overall_time_ns": 180.0,
    "best_overall_fidelity": 0.9992514494423205
  },
  "results": [
    {
      "uv_time_ns": 60.0,
      "fidelity": 0.6098209024202301,
      "process_fidelity": 0.5130922389872552,
      "active_population": 0.9967355561521296,
      "leakage": 0.0032644438478703908,
      "rydberg_decay_estimate": 6.522222695882219e-05,
      "objective": 0.39725568551026813,
      "success": false,
      "num_iter": 120,
      "num_calls": 142,
      "wall_time_s": 1.4254276899991964,
      "theta0": 0.0,
      "theta1": -1.6796533138216174,
      "gradient_checks": [
        {
          "index": 24.0,
          "analytic": -7.659179825603521e-07,
          "finite_difference": -7.656375533571236e-07,
          "abs_error": 2.80429203228477e-10
        },
        {
          "index": 49.0,
          "analytic": 1.5414054114781807e-05,
          "finite_difference": 1.5414058918139517e-05,
          "abs_error": 4.8033577102249946e-12
        }
      ],
      "envelope": [
        0.0,
        0.040290752975001905,
        0.10485184791051481,
        0.19973311348778286,
        0.32697520268399677,
        0.48145889838123074,
        0.6489994115405039,
        0.8072273480615868,
        0.9299515663867094,
        0.9940979950299764,
        1.0,
        1.0,
        1.0,
        1.0,
        1.0,
        1.0,
        1.0,
        1.0,
        1.0,
        1.0,
        1.0,
        1.0,
        1.0,
        1.0,
        1.0,
        1.0,
        1.0,
        1.0,
        1.0,
        1.0,
        1.0,
        1.0,
        1.0,
        1.0,
        1.0,
        1.0,
        1.0,
        1.0,
        0.9940979950299765,
        0.9299515663867097,
        0.8072273480615874,
        0.648999411540505,
        0.48145889838123146,
        0.3269752026839973,
        0.19973311348778314,
        0.1048518479105152,
        0.04029075297500212,
        0.0
      ],
      "phases": [
        -1.3108168562324207,
        -1.3058510518368545,
        -1.303101242171036,
        -1.3002370157520238,
        -1.2920084392028122,
        -1.2790409331001362,
        -1.285347671807586,
        -1.3405025763592278,
        -1.4118125071453462,
        -1.4001543142990103,
        -1.2899761812210047,
        -1.270282026448458,
        -1.4856704016936941,
        -1.8649580273199824,
        -2.2143827061127284,
        -2.2193812455903115,
        -1.5324902512600194,
        -0.02426464475384904,
        2.318621528172228,
        -3.141592653589793,
        3.0551243980028975,
        2.4933991130424804,
        1.6617162926364655,
        0.5918877508746214,
        -0.5918877492616805,
        -1.6617162933187373,
        -2.493399115248666,
        -3.055124400939531,
        -3.141592653589793,
        -2.3186215305397773,
        0.02426464779823778,
        1.532490251471807,
        2.2193812443817444,
        2.2143827049264093,
        1.8649580270083952,
        1.485670402442298,
        1.2702820277579967,
        1.2899761825018867,
        1.4001543153672031,
        1.41181250817211,
        1.3405025774086772,
        1.2853476727475854,
        1.2790409338482247,
        1.2920084397524212,
        1.300237016135041,
        1.3031012424247406,
        1.3058510519948356,
        1.3108168563245526
      ],
      "ctrl_x": [
        0.0,
        0.010550393663932248,
        0.02773429096791905,
        0.05338275765278786,
        0.0899804821402858,
        0.13848389048704654,
        0.1827504332975204,
        0.1842605628693561,
        0.14722521114918175,
        0.16881282249454943,
        0.2771437608959907,
        0.2960114974437399,
        0.0850231525995664,
        -0.28993766132595333,
        -0.6000682142382365,
        -0.6040592769622916,
        0.03829670811755928,
        0.9997056279511024,
        -0.6800458733439713,
        -1.0,
        -0.9962639490544706,
        -0.797175743729652,
        -0.09079475352918268,
        0.8298889281452858,
        0.8298889290451917,
        -0.09079475420863643,
        -0.7971757450616307,
        -0.9962639493080798,
        -1.0,
        -0.6800458750797863,
        0.9997056278772387,
        0.03829670790592695,
        -0.6040592759991369,
        -0.600068213289242,
        -0.2899376610277502,
        0.08502315185367326,
        0.296011496192889,
        0.27714375966528276,
        0.168812821448084,
        0.14722521020638302,
        0.18426056204457708,
        0.18275043271214741,
        0.13848389014209367,
        0.08998048196751603,
        0.053382757579069705,
        0.027734290942265212,
        0.010550393657789226,
        0.0
      ],
      "ctrl_y": [
        -0.0,
        -0.03888488097999894,
        -0.1011173531831037,
        -0.1924671343604078,
        -0.314350594088897,
        -0.46111265749927094,
        -0.6227379186379202,
        -0.785916049225113,
        -0.9182236399849294,
        -0.9796596626808939,
        -0.960828463252638,
        -0.9551843766420778,
        -0.9963789758530791,
        -0.9570455331617388,
        -0.7999488347769087,
        -0.7969393891104853,
        -0.9992664119980009,
        -0.02426226376272288,
        0.7331695643900089,
        -1.2246467991473532e-16,
        0.08636054547298384,
        0.6037473259643276,
        0.9958696263726367,
        0.5579286396501515,
        -0.5579286383115898,
        -0.99586962631069,
        -0.6037473242056101,
        -0.08636054254732166,
        -1.2246467991473532e-16,
        -0.7331695627799668,
        0.024262266806215436,
        0.9992664120061117,
        0.7969393898405315,
        0.799948835488781,
        0.9570455332520796,
        0.9963789759167277,
        0.9551843770297164,
        0.9608284636076265,
        0.9796596628612186,
        0.9182236401360953,
        0.7859160494184857,
        0.6227379188097065,
        0.4611126576028699,
        0.3143505941383516,
        0.19246713438085458,
        0.1011173531901404,
        0.038884880981665905,
        0.0
      ]
    },
    {
      "uv_time_ns": 80.0,
      "fidelity": 0.6703103132147815,
      "process_fidelity": 0.6004356024038303,
      "active_population": 0.9498091564585862,
      "leakage": 0.05019084354141379,
      "rydberg_decay_estimate": 0.0002235735195222001,
      "objective": 0.331264182615345,
      "success": true,
      "num_iter": 55,
      "num_calls": 62,
      "wall_time_s": 0.6347403270010545,
      "theta0": 0.0,
      "theta1": -2.130973939853963,
      "gradient_checks": [
        {
          "index": 24.0,
          "analytic": 0.0008184165330095705,
          "finite_difference": 0.0008184164457247789,
          "abs_error": 8.728479159066105e-11
        },
        {
          "index": 49.0,
          "analytic": 1.2791484127028241e-06,
          "finite_difference": 1.2791989689731054e-06,
          "abs_error": 5.0556270281234387e-11
        }
      ],
      "envelope": [
        0.0,
        0.040290752975001905,
        0.10485184791051481,
        0.19973311348778286,
        0.32697520268399677,
        0.48145889838123074,
        0.6489994115405039,
        0.8072273480615868,
        0.9299515663867094,
        0.9940979950299764,
        1.0,
        1.0,
        1.0,
        1.0,
        1.0,
        1.0,
        1.0,
        1.0,
        1.0,
        1.0,
        1.0,
        1.0,
        1.0,
        1.0,
        1.0,
        1.0,
        1.0,
        1.0,
        1.0,
        1.0,
        1.0,
        1.0,
        1.0,
        1.0,
        1.0,
        1.0,
        1.0,
        1.0,
        0.9940979950299765,
        0.9299515663867097,
        0.8072273480615874,
        0.648999411540505,
        0.48145889838123146,
        0.3269752026839973,
        0.19973311348778314,
        0.1048518479105152,
        0.04029075297500212,
        0.0
      ],
      "phases": [
        -1.662938109166792,
        -1.6654358397224027,
        -1.6633658473630049,
        -1.6638590964853666,
        -1.6670142539065413,
        -1.6644885261872866,
        -1.6519792995353597,
        -1.6527521536862828,
        -1.6734611481981259,
        -1.6606427786073794,
        -1.624579994841819,
        -1.66261730353881,
        -1.736369521502256,
        -1.731104645143171,
        -1.7172045375014438,
        -1.82822534200006,
        -1.982367057519137,
        -2.2188379092180313,
        -3.141592653589793,
        -2.5673732386689854,
        -3.141592653589793,
        -3.141592653589793,
        -3.141592653589793,
        -3.141592653589793,
        -3.141592653589793,
        -3.141592653589793,
        -3.141592653589793,
        -3.141592653589793,
        -3.141592653589793,
        -3.141592653589793,
        2.3107012241698603,
        2.034025229688547,
        1.8683085273689048,
        1.8279344365343118,
        1.8573087865182334,
        1.7999058155832088,
        1.7193718839657723,
        1.7277909535630736,
        1.7635192062186649,
        1.7458686589202514,
        1.7279468207237327,
        1.741238279932606,
        1.7515146954566383,
        1.7495135350940458,
        1.748760691255538,
        1.7483538391985718,
        1.7475066997974382,
        1.7483150361297461
      ],
      "ctrl_x": [
        -0.0,
        -0.003807407697366567,
        -0.009692229134488107,
        -0.018560897981153044,
        -0.031412355132164456,
        -0.04504297596715155,
        -0.05262984601753384,
        -0.06608294959661204,
        -0.09530568401442435,
        -0.08919606033861636,
        -0.05375774194709383,
        -0.0916920059439267,
        -0.16481771375731727,
        -0.15962257932239488,
        -0.14588571879245782,
        -0.25459513104366854,
        -0.40004938552293773,
        -0.6036261816634896,
        -1.0,
        -0.8396165560352932,
        -1.0,
        -1.0,
        -1.0,
        -1.0,
        -1.0,
        -1.0,
        -1.0,
        -1.0,
        -1.0,
        -1.0,
        -0.6742176782805074,
        -0.4468390541820414,
        -0.29314260903529366,
        -0.25431380080358196,
        -0.2826085787609841,
        -0.22711037241434362,
        -0.14802953347053432,
        -0.15635050512764861,
        -0.1904016474588337,
        -0.16197837285043465,
        -0.12633467494022685,
        -0.11008192689871904,
        -0.08653563601284775,
        -0.05812551854909621,
        -0.03535804536449476,
        -0.018519564143247104,
        -0.0070827973570466995,
        -0.0
      ],
      "ctrl_y": [
        -0.0,
        -0.04011045277628587,
        -0.10440292478975055,
        -0.19886882533382846,
        -0.3254628198662507,
        -0.4793472657129598,
        -0.6468619137714718,
        -0.8045178899385357,
        -0.9250549942677122,
        -0.9900883225968726,
        -0.9985540071427031,
        -0.9957874150871655,
        -0.9863240447397655,
        -0.9871781157270788,
        -0.9893014490297727,
        -0.9670477336971828,
        -0.9164935837979009,
        -0.7972674788365294,
        -1.2246467991473532e-16,
        -0.5431795640775096,
        -1.2246467991473532e-16,
        -1.2246467991473532e-16,
        -1.2246467991473532e-16,
        -1.2246467991473532e-16,
        -1.2246467991473532e-16,
        -1.2246467991473532e-16,
        -1.2246467991473532e-16,
        -1.2246467991473532e-16,
        -1.2246467991473532e-16,
        -1.2246467991473532e-16,
        0.7385326819403745,
        0.8946143636549206,
        0.9560687270107631,
        0.967121755892626,
        0.9592353158692066,
        0.9738690254555887,
        0.9889829408136906,
        0.9877016348808627,
        0.9756936180828392,
        0.9157362734727835,
        0.7972800896587662,
        0.6395953451598806,
        0.4736182582315856,
        0.32176731851392215,
        0.19657854728206225,
        0.10320337084705115,
        0.03966331752251259,
        0.0
      ]
    },
    {
      "uv_time_ns": 100.0,
      "fidelity": 0.7742237844225223,
      "process_fidelity": 0.747721925899173,
      "active_population": 0.8802312185159191,
      "leakage": 0.11976878148408088,
      "rydberg_decay_estimate": 0.0004432749720324462,
      "objective": 0.22582459450692646,
      "success": true,
      "num_iter": 47,
      "num_calls": 52,
      "wall_time_s": 0.5673825539997779,
      "theta0": 0.0,
      "theta1": -2.3177625316133104,
      "gradient_checks": [
        {
          "index": 24.0,
          "analytic": -3.7980684748710767e-06,
          "finite_difference": -3.798114600606084e-06,
          "abs_error": 4.612573500725753e-11
        },
        {
          "index": 49.0,
          "analytic": -4.670391791705698e-06,
          "finite_difference": -4.670375197690646e-06,
          "abs_error": 1.6594015051619006e-11
        }
      ],
      "envelope": [
        0.0,
        0.040290752975001905,
        0.10485184791051481,
        0.19973311348778286,
        0.32697520268399677,
        0.48145889838123074,
        0.6489994115405039,
        0.8072273480615868,
        0.9299515663867094,
        0.9940979950299764,
        1.0,
        1.0,
        1.0,
        1.0,
        1.0,
        1.0,
        1.0,
        1.0,
        1.0,
        1.0,
        1.0,
        1.0,
        1.0,
        1.0,
        1.0,
        1.0,
        1.0,
        1.0,
        1.0,
        1.0,
        1.0,
        1.0,
        1.0,
        1.0,
        1.0,
        1.0,
        1.0,
        1.0,
        0.9940979950299765,
        0.9299515663867097,
        0.8072273480615874,
        0.648999411540505,
        0.48145889838123146,
        0.3269752026839973,
        0.19973311348778314,
        0.1048518479105152,
        0.04029075297500212,
        0.0
      ],
      "phases": [
        -1.814967576164269,
        -1.8004001537403487,
        -1.7946439336700861,
        -1.7909883885658653,
        -1.7889841351889224,
        -1.7844222500844744,
        -1.7747572906878453,
        -1.7577520887394922,
        -1.7299254943379123,
        -1.6934520901185202,
        -1.6565102473797115,
        -1.6195471358046762,
        -1.5881870290040156,
        -1.570823688513487,
        -1.5635504508733318,
        -1.5724933851335083,
        -1.6058092185339237,
        -1.6555383969678092,
        -1.7257841197533954,
        -1.8246294044992053,
        -1.9398029600190019,
        -2.0693852790053944,
        -2.2194735139103194,
        -2.3779523993344345,
        -2.5334154021766513,
        -2.68952010362928,
        -2.8398234889212812,
        -2.970602614288605,
        -3.079382812323781,
        -3.141592653589793,
        3.0367914181468576,
        2.981432695822221,
        2.9516361435342953,
        2.9436405309810727,
        2.950118315064527,
        2.9699678840792387,
        3.0019003352468223,
        3.0384106620918168,
        3.077086358283932,
        3.1139908877969447,
        3.1396726743641583,
        -3.141592653589793,
        -3.141592653589793,
        -3.141592653589793,
        -3.141592653589793,
        -3.141592653589793,
        -3.141592653589793,
        -3.141592653589793
      ],
      "ctrl_x": [
        -0.0,
        -0.009169843593419444,
        -0.02327531393625023,
        -0.04362511776430159,
        -0.07077729843677487,
        -0.10207159110625472,
        -0.13145468185486917,
        -0.15003819270169128,
        -0.14735867146537304,
        -0.12162634564141005,
        -0.08560900420567871,
        -0.0487315007727006,
        -0.0173898256251223,
        -2.7361718586937568e-05,
        0.007245812517034749,
        -0.0016970575240218512,
        -0.03500573844507091,
        -0.08464068136478176,
        -0.15436803858188164,
        -0.2511160492739564,
        -0.3606891106909144,
        -0.47818675079963036,
        -0.6041328066494565,
        -0.7223233644983513,
        -0.8206908490166314,
        -0.8995436812794485,
        -0.9548121704155976,
        -0.9854167867381562,
        -0.9980655918025827,
        -1.0,
        -0.9945133750539673,
        -0.9872017865612328,
        -0.9820124476514597,
        -0.9804713728859669,
        -0.9817247259950547,
        -0.9853085837975338,
        -0.9902588841978158,
        -0.994681459492003,
        -0.9920304603451721,
        -0.9295973436004407,
        -0.807225860212794,
        -0.648999411540505,
        -0.48145889838123146,
        -0.3269752026839973,
        -0.19973311348778314,
        -0.1048518479105152,
        -0.04029075297500212,
        -0.0
      ],
      "ctrl_y": [
        -0.0,
        -0.03923338812497398,
        -0.10223585364938625,
        -0.19491066087716793,
        -0.31922305241982835,
        -0.4705146768375093,
        -0.6355469320186791,
        -0.793161101031406,
        -0.9182022314114983,
        -0.986629543328465,
        -0.9963288103828535,
        -0.9988119146428122,
        -0.9998487855494589,
        -0.9999999996256682,
        -0.99997374875592,
        -0.9999985599968433,
        -0.9993871113216917,
        -0.9964115390028888,
        -0.988013415224906,
        -0.9679569875759149,
        -0.9326861023029116,
        -0.8782581803545539,
        -0.7968836501835449,
        -0.6915554620562128,
        -0.5713724970108036,
        -0.4368308201926896,
        -0.29720989086209054,
        -0.1701580336470987,
        -0.062169723014989145,
        -1.2246467991473532e-16,
        0.10460949688611886,
        0.15947611924771105,
        0.1888161874882265,
        0.19666185942146328,
        0.19030649586899262,
        0.1707834731316185,
        0.1392384367453783,
        0.1029990006886407,
        0.06408111632895523,
        0.02566504619320343,
        0.0015498587864295806,
        -7.947950519915952e-17,
        -5.896170988235859e-17,
        -4.004291353675144e-17,
        -2.4460251811654865e-17,
        -1.2840647992829754e-17,
        -4.934194166607305e-18,
        -0.0
      ]
    },
    {
      "uv_time_ns": 125.0,
      "fidelity": 0.9019401711668736,
      "process_fidelity": 0.8996859926954108,
      "active_population": 0.9109568850527252,
      "leakage": 0.08904311494727479,
      "rydberg_decay_estimate": 0.0006174079245863612,
      "objective": 0.09812318235274198,
      "success": true,
      "num_iter": 46,
      "num_calls": 55,
      "wall_time_s": 0.581496654998773,
      "theta0": 0.0,
      "theta1": 2.472506683819269,
      "gradient_checks": [
        {
          "index": 24.0,
          "analytic": 3.3407025396825553e-07,
          "finite_difference": 3.3401753585238225e-07,
          "abs_error": 5.271811587327668e-11
        },
        {
          "index": 49.0,
          "analytic": -4.372582725764574e-06,
          "finite_difference": -4.372557871334948e-06,
          "abs_error": 2.4854429625859238e-11
        }
      ],
      "envelope": [
        0.0,
        0.040290752975001905,
        0.10485184791051481,
        0.19973311348778286,
        0.32697520268399677,
        0.48145889838123074,
        0.6489994115405039,
        0.8072273480615868,
        0.9299515663867094,
        0.9940979950299764,
        1.0,
        1.0,
        1.0,
        1.0,
        1.0,
        1.0,
        1.0,
        1.0,
        1.0,
        1.0,
        1.0,
        1.0,
        1.0,
        1.0,
        1.0,
        1.0,
        1.0,
        1.0,
        1.0,
        1.0,
        1.0,
        1.0,
        1.0,
        1.0,
        1.0,
        1.0,
        1.0,
        1.0,
        0.9940979950299765,
        0.9299515663867097,
        0.8072273480615874,
        0.648999411540505,
        0.48145889838123146,
        0.3269752026839973,
        0.19973311348778314,
        0.1048518479105152,
        0.04029075297500212,
        0.0
      ],
      "phases": [
        0.08935770839855728,
        0.09065338123396849,
        0.08908521266166769,
        0.08970966560151084,
        0.08664003234264017,
        0.07780787766626363,
        0.05757949839855936,
        0.01840748309221807,
        -0.045697277937071235,
        -0.13359845206511523,
        -0.23744074968035678,
        -0.34653104067230656,
        -0.45185240349934697,
        -0.5470456554944714,
        -0.6228805889824258,
        -0.674823776422449,
        -0.6989596301554806,
        -0.6912567789497768,
        -0.653328930417902,
        -0.5839382614641622,
        -0.48710160005643743,
        -0.36661433615570527,
        -0.22724866270350885,
        -0.07748157438807057,
        0.07748157437619119,
        0.2272486626924124,
        0.36661433614607875,
        0.4871016000487547,
        0.5839382614587079,
        0.6533289304147383,
        0.6912567789488171,
        0.6989596301565331,
        0.6748237764252116,
        0.6228805889865683,
        0.5470456554995917,
        0.45185240350503086,
        0.3465310406781592,
        0.2374407496860207,
        0.1335984520703115,
        0.045697277941386893,
        -0.018407483088921595,
        -0.057579498396165274,
        -0.07780787766461428,
        -0.08664003234159079,
        -0.08970966560088911,
        -0.0890852126613546,
        -0.09065338123385969,
        -0.08935770839856172
      ],
      "ctrl_x": [
        0.0,
        0.04012531090258591,
        0.10443606168594752,
        0.19892994386953602,
        0.3257487512725583,
        0.48000224156321336,
        0.6479238628639833,
        0.8070905933087746,
        0.9289807537527476,
        0.9852395805229616,
        0.971943133695974,
        0.9405565569602345,
        0.8996398262399142,
        0.8540649974772068,
        0.8122013588002902,
        0.7808170606503034,
        0.765511997897834,
        0.7704454195874478,
        0.7940647678276528,
        0.8342979072234998,
        0.8836932126339491,
        0.933546308062199,
        0.9742899520219587,
        0.9969998042123606,
        0.9969998042132802,
        0.9742899520244587,
        0.9335463080656496,
        0.8836932126375451,
        0.8342979072265069,
        0.7940647678295758,
        0.7704454195880597,
        0.7655119978971568,
        0.7808170606485774,
        0.8122013587978736,
        0.8540649974745432,
        0.8996398262374324,
        0.9405565569582468,
        0.9719431336946417,
        0.9852395805222736,
        0.9289807537525645,
        0.8070905933088242,
        0.6479238628640739,
        0.4800022415632758,
        0.32574875127258857,
        0.19892994386954743,
        0.10443606168595082,
        0.040125310902586524,
        0.0
      ],
      "ctrl_y": [
        0.0,
        0.0036474923253441835,
        0.009328399100525986,
        0.017893967016477774,
        0.02829371334077051,
        0.037423507649054506,
        0.03734841511141364,
        0.01485818464794225,
        -0.04248146633617313,
        -0.13241522832951563,
        -0.23521595367077078,
        -0.33963710509764544,
        -0.4366327782508053,
        -0.5201663004119538,
        -0.583377195957266,
        -0.6247597280534497,
        -0.6434216199930389,
        -0.6375059650205019,
        -0.6078331551460614,
        -0.5513138870031196,
        -0.46806656144686315,
        -0.35845681846414634,
        -0.2252977793699917,
        -0.07740407224761889,
        0.07740407223577514,
        0.22529777935918055,
        0.35845681845515953,
        0.4680665614400739,
        0.551313886998569,
        0.6078331551435492,
        0.6375059650197625,
        0.6434216199938446,
        0.6247597280556068,
        0.5833771959606305,
        0.5201663004163268,
        0.4366327782559188,
        0.3396371051031502,
        0.2352159536762758,
        0.13241522833463526,
        0.042481466340182315,
        -0.014858184645281708,
        -0.03734841510986252,
        -0.037423507648262876,
        -0.02829371334042872,
        -0.01789396701635412,
        -0.009328399100493323,
        -0.003647492325339837,
        -0.0
      ]
    },
    {
      "uv_time_ns": 150.0,
      "fidelity": 0.9938981895229922,
      "process_fidelity": 0.9938730291507533,
      "active_population": 0.9939988310119476,
      "leakage": 0.006001168988052363,
      "rydberg_decay_estimate": 0.0006972824408964997,
      "objective": 0.006185634668128934,
      "success": true,
      "num_iter": 53,
      "num_calls": 61,
      "wall_time_s": 0.6926387420026003,
      "theta0": 0.0,
      "theta1": 2.2997083889272356,
      "gradient_checks": [
        {
          "index": 24.0,
          "analytic": 5.5693118938062704e-08,
          "finite_difference": 5.570674130317421e-08,
          "abs_error": 1.3622365111508382e-11
        },
        {
          "index": 49.0,
          "analytic": -4.278643389263315e-06,
          "finite_difference": -4.278577492300428e-06,
          "abs_error": 6.589696288689968e-11
        }
      ],
      "envelope": [
        0.0,
        0.040290752975001905,
        0.10485184791051481,
        0.19973311348778286,
        0.32697520268399677,
        0.48145889838123074,
        0.6489994115405039,
        0.8072273480615868,
        0.9299515663867094,
        0.9940979950299764,
        1.0,
        1.0,
        1.0,
        1.0,
        1.0,
        1.0,
        1.0,
        1.0,
        1.0,
        1.0,
        1.0,
        1.0,
        1.0,
        1.0,
        1.0,
        1.0,
        1.0,
        1.0,
        1.0,
        1.0,
        1.0,
        1.0,
        1.0,
        1.0,
        1.0,
        1.0,
        1.0,
        1.0,
        0.9940979950299765,
        0.9299515663867097,
        0.8072273480615874,
        0.648999411540505,
        0.48145889838123146,
        0.3269752026839973,
        0.19973311348778314,
        0.1048518479105152,
        0.04029075297500212,
        0.0
      ],
      "phases": [
        0.3399709743034087,
        0.3384654558010243,
        0.3376800707597343,
        0.33661060649086716,
        0.3324213080244287,
        0.32136941994408685,
        0.29729648768371586,
        0.251640638513313,
        0.1757899695165115,
        0.06952225968125925,
        -0.05770512682464091,
        -0.1949473369329371,
        -0.3312353400888841,
        -0.45669105386941933,
        -0.561593158756581,
        -0.6402866356914574,
        -0.6854722010154037,
        -0.6958849248271859,
        -0.6687419496104616,
        -0.6065858348855997,
        -0.5106074555708373,
        -0.3872144104158939,
        -0.24117411355781915,
        -0.08226562448578356,
        0.08226660685621523,
        0.2411750127224197,
        0.3872151552549603,
        0.5106079968475274,
        0.6065861468662286,
        0.6687420307304066,
        0.6958847906877508,
        0.6854718835617608,
        0.6402861763437464,
        0.5615926103892059,
        0.4566904736349944,
        0.3312347881455322,
        0.19494686297050912,
        0.0577047716145529,
        -0.06952247804535672,
        -0.1757900558816421,
        -0.25164063614406773,
        -0.29729644502533725,
        -0.32136937406058097,
        -0.332421273249937,
        -0.33661058382137954,
        -0.33768005886298047,
        -0.33846545139171536,
        -0.33997097432892476
      ],
      "ctrl_x": [
        0.0,
        0.038004869433888984,
        0.09893042308413774,
        0.18852400470986688,
        0.30907493315253737,
        0.4568100103924492,
        0.6205290660294555,
        0.7818038982424846,
        0.9156197959421959,
        0.9916965534296432,
        0.9983355211224602,
        0.9810578725291796,
        0.9456413184256756,
        0.8975165897248387,
        0.8464077721967189,
        0.8019245474082651,
        0.7741202119270075,
        0.7674867081633053,
        0.7846022770640827,
        0.8215991010246482,
        0.8724478006534664,
        0.925964518958942,
        0.9710582155244007,
        0.9966180914525312,
        0.9966180107278572,
        0.9710580007649063,
        0.9259642376996132,
        0.8724475361274633,
        0.8215989231751485,
        0.7846022267697622,
        0.7674867941553765,
        0.7741204128873853,
        0.8019248218341365,
        0.8464080642215955,
        0.8975168455968662,
        0.9456414979238376,
        0.9810579643426395,
        0.9983355416084666,
        0.9916965383502078,
        0.9156197818961568,
        0.7818038987186897,
        0.6205290741394761,
        0.4568100173702559,
        0.3090749368630703,
        0.18852400620536894,
        0.09893042349739944,
        0.03800486949287755,
        0.0
      ],
      "ctrl_y": [
        0.0,
        0.013378141672357765,
        0.03473731996920943,
        0.06596981333668939,
        0.10670271255687602,
        0.15207657688059242,
        0.1901155290672808,
        0.20099416944627269,
        0.1626354976746033,
        0.06905627877597925,
        -0.05767310694895771,
        -0.1937148697145365,
        -0.32521146487501035,
        -0.440980692512377,
        -0.5325353351327846,
        -0.5974253260986256,
        -0.6330386224284305,
        -0.6410648584914426,
        -0.6199994087302474,
        -0.57006571305025,
        -0.48870731029413644,
        -0.377610526374908,
        -0.2388429234090189,
        -0.08217286528723566,
        0.08217384433534072,
        0.2388437965500948,
        0.3776112160693511,
        0.4887077825297227,
        0.5700659693732265,
        0.6199994723771389,
        0.6410647555412033,
        0.6330383766811172,
        0.5974249577363574,
        0.5325348709902962,
        0.44098017174228044,
        0.3252109429345218,
        0.19371440472994347,
        0.057672752330105756,
        -0.06905649532690046,
        -0.16263557675222604,
        -0.20099416759398767,
        -0.19011550259651713,
        -0.1520765559205477,
        -0.10670270180895243,
        -0.06596980906294687,
        -0.034737318792258665,
        -0.013378141504782625,
        -0.0
      ]
    },
    {
      "uv_time_ns": 180.0,
      "fidelity": 0.9992514494423205,
      "process_fidelity": 0.9992514311182836,
      "active_population": 0.9992515227384676,
      "leakage": 0.0007484772615323765,
      "rydberg_decay_estimate": 0.0007475626239886207,
      "objective": 0.0010018705829278286,
      "success": false,
      "num_iter": 120,
      "num_calls": 135,
      "wall_time_s": 1.80396068799746,
      "theta0": 0.0,
      "theta1": 1.9094483570078027,
      "gradient_checks": [
        {
          "index": 24.0,
          "analytic": 8.567453200916511e-05,
          "finite_difference": 8.567480589988935e-05,
          "abs_error": 2.7389072424172187e-10
        },
        {
          "index": 49.0,
          "analytic": 0.0001899612296244172,
          "finite_difference": 0.00018996126893711107,
          "abs_error": 3.931269386089377e-11
        }
      ],
      "envelope": [
        0.0,
        0.040290752975001905,
        0.10485184791051481,
        0.19973311348778286,
        0.32697520268399677,
        0.48145889838123074,
        0.6489994115405039,
        0.8072273480615868,
        0.9299515663867094,
        0.9940979950299764,
        1.0,
        1.0,
        1.0,
        1.0,
        1.0,
        1.0,
        1.0,
        1.0,
        1.0,
        1.0,
        1.0,
        1.0,
        1.0,
        1.0,
        1.0,
        1.0,
        1.0,
        1.0,
        1.0,
        1.0,
        1.0,
        1.0,
        1.0,
        1.0,
        1.0,
        1.0,
        1.0,
        1.0,
        0.9940979950299765,
        0.9299515663867097,
        0.8072273480615874,
        0.648999411540505,
        0.48145889838123146,
        0.3269752026839973,
        0.19973311348778314,
        0.1048518479105152,
        0.04029075297500212,
        0.0
      ],
      "phases": [
        1.205547503750961,
        1.2609090914101522,
        1.2984027775504519,
        1.3053946763195317,
        1.263122767495858,
        1.1577503369746207,
        0.9837761675503129,
        0.7132613663705101,
        0.3903964718180317,
        0.05352321190101739,
        -0.246579636651151,
        -0.48625033670113016,
        -0.6506435231172638,
        -0.732679765125392,
        -0.7454950303389887,
        -0.7002424139127608,
        -0.6288558629287513,
        -0.5293374254118506,
        -0.4219744513315655,
        -0.32883947003103176,
        -0.2513784980738296,
        -0.17805889516694862,
        -0.09864929831648706,
        -0.03063496037431035,
        0.03008713593470258,
        0.09816141433225622,
        0.1770909537375922,
        0.25052683286456867,
        0.3276699969688872,
        0.42076522073637834,
        0.5283113136882949,
        0.6275550546292861,
        0.6993977609142874,
        0.7446750888313187,
        0.7320236726127174,
        0.6502544172574662,
        0.48592829026102224,
        0.24682510642737743,
        -0.053073392433804045,
        -0.3897178559744834,
        -0.7124188146552806,
        -0.9826278563955944,
        -1.1564527775548419,
        -1.2617758419239522,
        -1.3040964367238363,
        -1.297161029707441,
        -1.259820300469958,
        -1.2045927570206088
      ],
      "ctrl_x": [
        0.0,
        0.012286715280728241,
        0.028209079401800514,
        0.05238937187633432,
        0.0990219110862626,
        0.19325809058581425,
        0.35946940720910747,
        0.6104511340078445,
        0.8599803860700045,
        0.9926744216569511,
        0.9697529639030997,
        0.8840913403136162,
        0.7956941822956882,
        0.743384674892979,
        0.7347521957113995,
        0.7646859974829988,
        0.8087010416489812,
        0.8631418346472592,
        0.9122820578470235,
        0.9464177680107164,
        0.9685704553462362,
        0.9841893542342978,
        0.9951381027607668,
        0.9995307862996069,
        0.9995474162684165,
        0.9951860357094192,
        0.9843603344546371,
        0.9687819467179073,
        0.9467947960934415,
        0.9127766462531699,
        0.8636595271258839,
        0.8094655185304829,
        0.7652300216309628,
        0.7353081441901234,
        0.743823351611839,
        0.7959298029206017,
        0.8842417913187369,
        0.9696930183412303,
        0.9926982434901226,
        0.8602203486854181,
        0.6108959292970334,
        0.3600896641040866,
        0.19383011168873135,
        0.09944155099034681,
        0.052639550231027135,
        0.028334456680726178,
        0.012328486664525951,
        0.0
      ],
      "ctrl_y": [
        0.0,
        0.0383716223647495,
        0.1009859289681124,
        0.19273990333588603,
        0.3116206737285976,
        0.4409693654366406,
        0.5403535707855119,
        0.5281717565783681,
        0.35389779795864856,
        0.053181917139726476,
        -0.2440884860069261,
        -0.4673141362964248,
        -0.6056985787178273,
        -0.6688641305483947,
        -0.6783356181841532,
        -0.6444030766945726,
        -0.5882198783072984,
        -0.5049615562414266,
        -0.4095625067439645,
        -0.32294489993435993,
        -0.24873936767304158,
        -0.17711949359648688,
        -0.09848937218655401,
        -0.030630168776706535,
        0.030082596814985173,
        0.0980038485416294,
        0.17616677312238804,
        0.24791437980371756,
        0.32183786926087243,
        0.4084590481979992,
        0.5040756106029082,
        0.587167415913193,
        0.6437569525796799,
        0.6777329364046555,
        0.6683762575054043,
        0.6053889236042994,
        0.4670293935989803,
        0.24432652369375374,
        -0.052735387494969144,
        -0.3533141201999048,
        -0.5276572325163913,
        -0.5399404318860812,
        -0.44071823042983244,
        -0.3114870159523112,
        -0.1926717269736243,
        -0.10095082255661844,
        -0.03835822195899137,
        -0.0
      ]
    },
    {
      "uv_time_ns": 220.0,
      "fidelity": 0.9991234604307845,
      "process_fidelity": 0.9991234263755354,
      "active_population": 0.9991235966517813,
      "leakage": 0.0008764033482187017,
      "rydberg_decay_estimate": 0.0008761803443756435,
      "objective": 0.0011404690673807159,
      "success": false,
      "num_iter": 120,
      "num_calls": 133,
      "wall_time_s": 2.3449830080026004,
      "theta0": 0.0,
      "theta1": 1.5987747229108293,
      "gradient_checks": [
        {
          "index": 24.0,
          "analytic": 1.5866291660674067e-05,
          "finite_difference": 1.5866069525902193e-05,
          "abs_error": 2.2213477187364586e-10
        },
        {
          "index": 49.0,
          "analytic": -2.2849219036623174e-06,
          "finite_difference": -2.2847279623761096e-06,
          "abs_error": 1.9394128620772721e-10
        }
      ],
      "envelope": [
        0.0,
        0.040290752975001905,
        0.10485184791051481,
        0.19973311348778286,
        0.32697520268399677,
        0.48145889838123074,
        0.6489994115405039,
        0.8072273480615868,
        0.9299515663867094,
        0.9940979950299764,
        1.0,
        1.0,
        1.0,
        1.0,
        1.0,
        1.0,
        1.0,
        1.0,
        1.0,
        1.0,
        1.0,
        1.0,
        1.0,
        1.0,
        1.0,
        1.0,
        1.0,
        1.0,
        1.0,
        1.0,
        1.0,
        1.0,
        1.0,
        1.0,
        1.0,
        1.0,
        1.0,
        1.0,
        0.9940979950299765,
        0.9299515663867097,
        0.8072273480615874,
        0.648999411540505,
        0.48145889838123146,
        0.3269752026839973,
        0.19973311348778314,
        0.1048518479105152,
        0.04029075297500212,
        0.0
      ],
      "phases": [
        1.616270595762626,
        1.6059391257117674,
        1.5882428669978923,
        1.5595269200509518,
        1.5106331467052678,
        1.4247729405973137,
        1.275608286628481,
        1.055498813330452,
        0.7681741937890214,
        0.43466107732266934,
        0.10388268502089337,
        -0.1895314691536618,
        -0.41674468341045223,
        -0.5679145899317408,
        -0.632827829415894,
        -0.6194318357565538,
        -0.5373580753908183,
        -0.42247365729962283,
        -0.3034289312443019,
        -0.19638005026047534,
        -0.10655427690946029,
        -0.04230225516042774,
        -0.010590447048195006,
        -0.0016185215165251954,
        0.000656163769633622,
        0.010106284802768428,
        0.04184230033463665,
        0.10602683168282256,
        0.19608189910979723,
        0.3032279733987515,
        0.4219176145725494,
        0.5367424032212158,
        0.6191597100918393,
        0.632617046196629,
        0.5674377935630437,
        0.41674180503148417,
        0.18955460669919333,
        -0.1040542533255091,
        -0.4344048129585305,
        -0.7678417817793384,
        -1.055306360346918,
        -1.2751666293153543,
        -1.424337508046521,
        -1.5099534421865324,
        -1.5587302136581846,
        -1.5874323214828494,
        -1.6052498920769582,
        -1.6156892467270674
      ],
      "ctrl_x": [
        -0.0,
        -0.0014156383985995224,
        -0.001829209180313944,
        0.0022508260531145406,
        0.019660002742254764,
        0.0700546772763695,
        0.18880675448401246,
        0.3977965927909208,
        0.6688030142118997,
        0.9016596216062042,
        0.9946090445851884,
        0.9820926135465853,
        0.9144114892985205,
        0.8430244977684624,
        0.806358278913825,
        0.814208448682879,
        0.8590639950114757,
        0.9120774881345045,
        0.9543175564292847,
        0.9807793278559235,
        0.9943284622158843,
        0.9991053930229418,
        0.9999439217397961,
        0.9999986901943362,
        0.9999997847245614,
        0.9999489319384064,
        0.9991247386615641,
        0.9943844191577376,
        0.9808374595879089,
        0.9543775822072292,
        0.9123053345789831,
        0.8593789751807385,
        0.8143664072522288,
        0.8064829239634199,
        0.8432808588611853,
        0.9144126544219657,
        0.9820882541984716,
        0.9945912390097781,
        0.9017668687884506,
        0.6690177659517054,
        0.39793176550886905,
        0.18908097368909774,
        0.07026208238388418,
        0.0198818426051455,
        0.0024099438657738323,
        -0.0017442343276181443,
        -0.0013878854687076351,
        -0.0
      ],
      "ctrl_y": [
        0.0,
        0.04026587566683525,
        0.1048358908200068,
        0.19972043061640482,
        0.3263836200890224,
        0.4763349798431477,
        0.6209285350514454,
        0.7024057675037104,
        0.646152028555333,
        0.4186176662392257,
        0.10369594220285905,
        -0.1883987749886861,
        -0.40478590419981497,
        -0.5378751678244977,
        -0.5914273632722229,
        -0.580572650142443,
        -0.5118681983430141,
        -0.41001787234003934,
        -0.29879424608054106,
        -0.1951202451066599,
        -0.1063527584381081,
        -0.04228963977705438,
        -0.010590249082839814,
        -0.001618520809875584,
        0.0006561637225483069,
        0.010106112766057787,
        0.041830091972897894,
        0.10582828986773249,
        0.1948278159533107,
        0.29860246244845917,
        0.40951065492698696,
        0.5113391995704061,
        0.5803510616334713,
        0.5912573833411406,
        0.537473155681604,
        0.40478327217533916,
        0.18842149815081688,
        -0.10386658406337639,
        -0.4183865892665451,
        -0.6459296747062209,
        -0.702329197355156,
        -0.6208450866107458,
        -0.47630443060037686,
        -0.3263701817030247,
        -0.1997185739837121,
        -0.10483733903939077,
        -0.04026684180834639,
        -0.0
      ]
    },
    {
      "uv_time_ns": 260.0,
      "fidelity": 0.9989512347482187,
      "process_fidelity": 0.9989511606105227,
      "active_population": 0.9989515312990025,
      "leakage": 0.0010484687009975069,
      "rydberg_decay_estimate": 0.0010482289203152756,
      "objective": 0.00113943724887737,
      "success": false,
      "num_iter": 120,
      "num_calls": 129,
      "wall_time_s": 2.3361155689999578,
      "theta0": 0.0,
      "theta1": 1.1410469802772418,
      "gradient_checks": [
        {
          "index": 24.0,
          "analytic": -1.957293543055006e-05,
          "finite_difference": -1.9573104855646895e-05,
          "abs_error": 1.694250968361545e-10
        },
        {
          "index": 49.0,
          "analytic": -7.284987715122007e-05,
          "finite_difference": -7.284972625143382e-05,
          "abs_error": 1.5089978625101776e-10
        }
      ],
      "envelope": [
        0.0,
        0.040290752975001905,
        0.10485184791051481,
        0.19973311348778286,
        0.32697520268399677,
        0.48145889838123074,
        0.6489994115405039,
        0.8072273480615868,
        0.9299515663867094,
        0.9940979950299764,
        1.0,
        1.0,
        1.0,
        1.0,
        1.0,
        1.0,
        1.0,
        1.0,
        1.0,
        1.0,
        1.0,
        1.0,
        1.0,
        1.0,
        1.0,
        1.0,
        1.0,
        1.0,
        1.0,
        1.0,
        1.0,
        1.0,
        1.0,
        1.0,
        1.0,
        1.0,
        1.0,
        1.0,
        0.9940979950299765,
        0.9299515663867097,
        0.8072273480615874,
        0.648999411540505,
        0.48145889838123146,
        0.3269752026839973,
        0.19973311348778314,
        0.1048518479105152,
        0.04029075297500212,
        0.0
      ],
      "phases": [
        1.8139858909699562,
        1.7654447895113003,
        1.7030330584817754,
        1.6363086221456928,
        1.5632493986529514,
        1.4742219281488236,
        1.3642066460482933,
        1.2341047415824153,
        1.0837587945268936,
        0.912806870464812,
        0.7350213400040744,
        0.5761653193109559,
        0.4493438372198444,
        0.353574998545922,
        0.28394614104863214,
        0.2454608064616317,
        0.24313021126984147,
        0.2607642329027553,
        0.2831360074122635,
        0.2927622452165757,
        0.2681978487897032,
        0.20952528608993637,
        0.1303508545224461,
        0.043474775546229694,
        -0.04411282378450876,
        -0.13098619393885302,
        -0.21012921659563544,
        -0.26859663468933537,
        -0.29275770008096247,
        -0.2828769667461959,
        -0.260751788689936,
        -0.2435586497600002,
        -0.24612949142787377,
        -0.2844313694924625,
        -0.35336665726424776,
        -0.4486667650769096,
        -0.5759965413407317,
        -0.7351630000079719,
        -0.9126314452491169,
        -1.0833741155860896,
        -1.233885190474075,
        -1.3642295856106967,
        -1.4740519972291097,
        -1.5628822011999324,
        -1.6359724784801013,
        -1.7027823655944396,
        -1.76535578012743,
        -1.8132856864303797
      ],
      "ctrl_x": [
        -0.0,
        -0.0077931038461937835,
        -0.013824891710926782,
        -0.013075616915386652,
        0.002467634934211395,
        0.046424361298334056,
        0.13312489867658078,
        0.2666806712682369,
        0.4352265807086737,
        0.6079180628031051,
        0.7418164429007824,
        0.8385579915819924,
        0.9007323166827705,
        0.9381408534216172,
        0.9599574199903121,
        0.9700254504540821,
        0.9705891579380324,
        0.9661932265262715,
        0.960184060602577,
        0.9574503506537758,
        0.9642500214445984,
        0.9781297633333357,
        0.9915163499604331,
        0.9990551207825624,
        0.9990271871572796,
        0.991433567143948,
        0.9780039700805824,
        0.9641442688470123,
        0.9574516623610947,
        0.960256396101282,
        0.9661964348062604,
        0.9704859257431607,
        0.969862740914552,
        0.9598213722042044,
        0.9382129720346355,
        0.9010262131421354,
        0.8386499319602557,
        0.7417214378362458,
        0.6080560347706913,
        0.4355426852587262,
        0.266847941664793,
        0.1331103274503407,
        0.04650579415016765,
        0.0025876958075918195,
        -0.013008621181162186,
        -0.013798835151954398,
        -0.0077895852840565594,
        -0.0
      ],
      "ctrl_y": [
        0.0,
        0.03952989131954532,
        0.1039364343213239,
        0.1993046533972692,
        0.32696589110803626,
        0.4792154520761095,
        0.6351991794171892,
        0.761903806940525,
        0.8218197729853733,
        0.7865535281469018,
        0.6706029861565114,
        0.5448123482025486,
        0.43437460064245137,
        0.3462538651645057,
        0.28014594733021464,
        0.24300334456824912,
        0.24074195000693427,
        0.2578190237642543,
        0.2793681616876677,
        0.2885980353934548,
        0.26499414360338525,
        0.20799559149528343,
        0.12998202860834251,
        0.043461081879533736,
        -0.04409851834941785,
        -0.1306119517510805,
        -0.20858627593065474,
        -0.2653786518344307,
        -0.28859368364878724,
        -0.2791194255987529,
        -0.2578070002301564,
        -0.24115776565236338,
        -0.2436519316272959,
        -0.2806117129772707,
        -0.34605840418336375,
        -0.4337646403647297,
        -0.5446708103277229,
        -0.6707080651476708,
        -0.7864468718874551,
        -0.82165228968385,
        -0.7618452385411398,
        -0.6352022330769822,
        -0.47920755622269895,
        -0.32696496295574007,
        -0.1993090374230147,
        -0.10393989685726554,
        -0.03953058482232525,
        -0.0
      ]
    },
    {
      "uv_time_ns": 300.0,
      "fidelity": 0.9990945601352271,
      "process_fidelity": 0.9990940538022554,
      "active_population": 0.9990965854671141,
      "leakage": 0.0009034145328858934,
      "rydberg_decay_estimate": 0.0008165105709643525,
      "objective": 0.015904137358538434,
      "success": false,
      "num_iter": 120,
      "num_calls": 142,
      "wall_time_s": 2.5353498570002557,
      "theta0": 0.0,
      "theta1": -4.342505571009278,
      "gradient_checks": [
        {
          "index": 24.0,
          "analytic": 0.00018066208631605608,
          "finite_difference": 0.00018066220047741055,
          "abs_error": 1.141613544691257e-10
        },
        {
          "index": 49.0,
          "analytic": 0.0003914400113255267,
          "finite_difference": 0.00039144004704283475,
          "abs_error": 3.571730807167342e-11
        }
      ],
      "envelope": [
        0.0,
        0.040290752975001905,
        0.10485184791051481,
        0.19973311348778286,
        0.32697520268399677,
        0.48145889838123074,
        0.6489994115405039,
        0.8072273480615868,
        0.9299515663867094,
        0.9940979950299764,
        1.0,
        1.0,
        1.0,
        1.0,
        1.0,
        1.0,
        1.0,
        1.0,
        1.0,
        1.0,
        1.0,
        1.0,
        1.0,
        1.0,
        1.0,
        1.0,
        1.0,
        1.0,
        1.0,
        1.0,
        1.0,
        1.0,
        1.0,
        1.0,
        1.0,
        1.0,
        1.0,
        1.0,
        0.9940979950299765,
        0.9299515663867097,
        0.8072273480615874,
        0.648999411540505,
        0.48145889838123146,
        0.3269752026839973,
        0.19973311348778314,
        0.1048518479105152,
        0.04029075297500212,
        0.0
      ],
      "phases": [
        1.5494154946379872,
        -2.526096092915759,
        1.8516909934794423,
        0.6583479741809533,
        -0.18758204399895995,
        -0.7838247772241549,
        -1.3450198664465705,
        -2.095122494471197,
        3.140109561237942,
        1.939203519556389,
        0.6169591225403219,
        -0.1874703729812035,
        -0.5966599012464977,
        -0.7502521160722337,
        -0.9218386091269926,
        -1.128659089285259,
        -1.2926781897423738,
        -1.3173155439274387,
        -1.1088724207774163,
        -0.775122915275376,
        -0.4195999380860149,
        -0.18858697996695462,
        -0.10395167798172178,
        -0.16636158717452698,
        -0.2003254892425299,
        -0.3126419208728679,
        -0.5494600982215418,
        -1.0870899788382964,
        -2.1915229526307027,
        2.562165804796215,
        1.4085300265964502,
        0.6610341814141432,
        0.11653751417107294,
        -0.30061016877044944,
        -0.8196962988516678,
        -1.8178817766899424,
        2.9110231765691417,
        1.830683135849073,
        0.31011884941546564,
        2.5788161895273625,
        -2.0641174552719246,
        -1.1047881813703295,
        -0.6514753094572767,
        -0.29489322818158925,
        0.8607082433979008,
        -1.6380237258407808,
        -3.141592653589793,
        2.3176337817204615
      ],
      "ctrl_x": [
        0.0,
        -0.03289687003318411,
        -0.029066542988576926,
        0.157989699268631,
        0.32123940908104875,
        0.34097807837240707,
        0.145287074534419,
        -0.4041220720203304,
        -0.9299505436434035,
        -0.3580044673418073,
        0.8156415477245031,
        0.9824788352440433,
        0.8272169691995858,
        0.7315169935347903,
        0.604356333085336,
        0.42787215998604017,
        0.27454658566783946,
        0.25077502744878,
        0.4456712050763001,
        0.7143350228652663,
        0.913251996665526,
        0.982270116083246,
        0.9946018879279318,
        0.986193797178151,
        0.9800018611966718,
        0.951524306522957,
        0.8528065975574141,
        0.465063508104139,
        -0.5816263922101332,
        -0.8367766130885593,
        0.16155514894898748,
        0.7893577350967522,
        0.9932171855567542,
        0.9551559940969396,
        0.6824432256501591,
        -0.24457896865380108,
        -0.9735364091695272,
        -0.2569711636498466,
        0.9466768436796738,
        -0.7865316718921154,
        -0.38226543937020346,
        0.29161080101400844,
        0.38285134728294334,
        0.3128607228637672,
        0.13020613004779627,
        -0.007043608595917221,
        -0.04029075297500212,
        -0.0
      ],
      "ctrl_y": [
        0.0,
        -0.023262431457446962,
        0.10074247410572633,
        0.12219890158479775,
        -0.06097561171074342,
        -0.3399067826624366,
        -0.6325281828923913,
        -0.6987856197465264,
        0.0013792035500924309,
        0.9273961532624168,
        0.5785575733024131,
        -0.18637418892515115,
        -0.5618826264160972,
        -0.6818232088817611,
        -0.7967141411194145,
        -0.9038392637570468,
        -0.9615737997148902,
        -0.9680453943943247,
        -0.8951967252877093,
        -0.6998038833188049,
        -0.4073951283292794,
        -0.1874711152412724,
        -0.10376456297885943,
        -0.1655952729015532,
        -0.19898832139364206,
        -0.307573558837566,
        -0.522226873267306,
        -0.8852773200697459,
        -0.813456046682686,
        0.5475444272276356,
        0.986863685545309,
        0.613933519237161,
        0.11627391072257011,
        -0.29610306810414355,
        -0.7309386046476175,
        -0.9696293766652508,
        0.22853196717593538,
        0.9664190711344866,
        0.3033706929868304,
        0.4961631233129773,
        -0.7109775842610289,
        -0.57979597869586,
        -0.29193752193595135,
        -0.09503131725595612,
        0.15145851023135026,
        -0.1046149969564466,
        -4.934194166607305e-18,
        0.0
      ]
    }
  ]
}